#pragma once
#include <cstdarg>
namespace Eloquent {
    namespace ML {
        namespace Port {
            class SVM {
                public:
                    /**
                    * Predict class for features vector
                    */
                    int predict(float *x) {
                        float kernels[166] = { 0 };
                        float decisions[1] = { 0 };
                        int votes[2] = { 0 };
                        kernels[0] = compute_kernel(x,   -0.098958544856  , 0.055821057492  , -0.080332455429  , -0.595192506461  , 0.34205595067  , 0.322792843956  , -0.220200758457 );
                        kernels[1] = compute_kernel(x,   1.252127482734  , 1.909644363379  , 1.694932557883  , 0.166039711028  , -0.075271335854  , 0.793100345098  , -0.165367626014 );
                        kernels[2] = compute_kernel(x,   1.115403859834  , -0.780468986918  , 0.14537981055  , 1.302032404821  , -0.013315184073  , -0.023749525307  , 0.467705812184 );
                        kernels[3] = compute_kernel(x,   -0.878076708792  , -0.696242708341  , -1.246935178462  , -0.220432030158  , -0.00279432811  , -0.005184755525  , 0.692023172175 );
                        kernels[4] = compute_kernel(x,   0.072794053706  , 0.774131121589  , 1.408354062877  , -0.386731991518  , -0.659763333787  , -3.322090289895  , -6.89488842576 );
                        kernels[5] = compute_kernel(x,   -0.661487021383  , -0.118061706945  , -0.701675210088  , -0.449972821894  , 0.024092303795  , 0.279475047798  , 0.009101431757 );
                        kernels[6] = compute_kernel(x,   0.572270374042  , -0.90222072533  , -0.222353656494  , 1.018619794617  , -0.067088447883  , -0.079443834652  , -0.085610342462 );
                        kernels[7] = compute_kernel(x,   -1.255578448612  , 0.991216737824  , 0.543546392107  , -1.532093697217  , 0.049809951704  , -0.630198671516  , 0.657129360621 );
                        kernels[8] = compute_kernel(x,   1.170049061867  , 0.567847125223  , 1.788767994301  , 0.568907223054  , -0.284519471114  , 0.20521596867  , 0.512569284182 );
                        kernels[9] = compute_kernel(x,   0.292259804381  , 0.748414613059  , 1.154744775261  , 0.14964394019  , -0.272829631155  , 0.279475047798  , -0.663850648218 );
                        kernels[10] = compute_kernel(x,   -0.765615260614  , -0.486498172436  , -1.066872584255  , -0.473395351663  , 0.032275191766  , -0.345538868193  , -0.98786461265 );
                        kernels[11] = compute_kernel(x,   0.543067270121  , 0.454987086564  , 1.017795759948  , 0.048927062184  , 0.259058086964  , 1.176772253925  , 0.886431550835 );
                        kernels[12] = compute_kernel(x,   -0.379706566636  , -0.39802882795  , -0.549509637518  , -0.06115882773  , -0.104495935751  , -0.314597585223  , 0.133722187308 );
                        kernels[13] = compute_kernel(x,   -0.141288296498  , 0.365419850977  , 0.634845735648  , -0.731043179121  , -0.086961175813  , 0.149521659325  , -0.150413135348 );
                        kernels[14] = compute_kernel(x,   -0.329338586894  , 0.246822580924  , -0.303508628531  , -0.68654037256  , -0.027342992023  , 1.32529041218  , 2.481577221885 );
                        kernels[15] = compute_kernel(x,   1.561267411103  , -0.822286940208  , 0.482680163079  , 1.625263315631  , 0.020585351807  , 0.211404225264  , -0.015822719353 );
                        kernels[16] = compute_kernel(x,   -0.681029502542  , -0.417788278384  , -0.57487056628  , -0.077554598568  , -0.466880974469  , 0.595076134091  , 1.09579442016 );
                        kernels[17] = compute_kernel(x,   0.170358969077  , 0.273779209776  , 0.913815952026  , -0.103319381314  , -0.374531238795  , 0.242345508234  , -1.915043033948 );
                        kernels[18] = compute_kernel(x,   -0.53272788137  , 1.578785185747  , -0.29082816415  , -1.452457096003  , -0.346475622895  , 0.576511364309  , -4.691593467621 );
                        kernels[19] = compute_kernel(x,   1.51045696009  , -0.521472408391  , 0.728681172066  , 1.302032404821  , 0.052147919695  , -0.15370291378  , -0.663850648218 );
                        kernels[20] = compute_kernel(x,   -0.661044550111  , -0.61213266708  , -0.95782059058  , -0.288357366488  , -0.033187912003  , 0.217592481858  , 0.387948528631 );
                        kernels[21] = compute_kernel(x,   -0.809862387766  , 0.306429276782  , 0.295009290243  , -0.993375512532  , 0.25438215098  , 0.520817054963  , 0.039010413089 );
                        kernels[22] = compute_kernel(x,   0.712681257538  , -0.296834574873  , 0.246823525596  , 0.735207184413  , 0.070851663629  , 0.471311002211  , -0.678805138884 );
                        kernels[23] = compute_kernel(x,   -0.309353634464  , -0.615065671579  , -0.719427860221  , 0.374500225972  , 0.100076263526  , 0.514628798369  , 0.16363116864 );
                        kernels[24] = compute_kernel(x,   0.899699114967  , 1.400433428091  , 0.997507016939  , -0.267277089696  , 1.029418540239  , 1.603761958909  , 0.547463095736 );
                        kernels[25] = compute_kernel(x,   -0.676531044615  , -0.419103032535  , -0.719427860221  , -0.510871399293  , 0.060330807666  , 0.291851560986  , -0.190291777125 );
                        kernels[26] = compute_kernel(x,   1.696147403705  , -0.887728712076  , 0.454783141441  , 1.721295687684  , -0.010977216081  , 0.174274685701  , 0.063934564199 );
                        kernels[27] = compute_kernel(x,   0.278100723692  , 0.377764545636  , 0.170740739311  , -0.058816574753  , -0.219056367345  , 0.353734126926  , -1.795407108619 );
                        kernels[28] = compute_kernel(x,   -0.835230740667  , 0.229704245855  , 0.898599394769  , -0.478079857616  , 0.129300863423  , 0.093827349979  , 0.288251924191 );
                        kernels[29] = compute_kernel(x,   -0.865761258402  , 1.015185218378  , 0.388844726661  , -1.042562825047  , -0.064750479891  , -0.803469856147  , 0.218464301082 );
                        kernels[30] = compute_kernel(x,   0.190270176295  , 0.139711340693  , 0.650062292905  , 0.273783347965  , 0.097738295534  , 0.081450836791  , -2.26398114949 );
                        kernels[31] = compute_kernel(x,   1.418865406886  , 4.38073271252  , 5.846516596156  , -1.356424723951  , -0.898236068943  , -2.158698050228  , -0.195276607347 );
                        kernels[32] = compute_kernel(x,   -1.288468813128  , 0.914987250393  , -0.32379737154  , -2.295668167684  , -0.420121614634  , -0.029937781901  , 0.18855531975 );
                        kernels[33] = compute_kernel(x,   -0.763255413833  , -0.284969126656  , -0.412560622206  , -0.096292622383  , 0.017078399819  , 1.071571891827  , -0.010837889131 );
                        kernels[34] = compute_kernel(x,   -1.345105135883  , -0.011451328644  , -1.066872584255  , -1.000402271463  , -0.21204246337  , -0.326974098411  , 0.233418791748 );
                        kernels[35] = compute_kernel(x,   -0.277569448126  , -0.479135838172  , -0.595159309289  , 0.114510145537  , 0.117611023464  , 0.471311002211  , 0.248373282414 );
                        kernels[36] = compute_kernel(x,   -2.136465004999  , 2.877366050365  , 0.632309642772  , -3.54877351032  , 0.246199263009  , -1.199518278162  , -2.258996319268 );
                        kernels[37] = compute_kernel(x,   -0.851823413349  , -0.557564303865  , -0.656025538317  , -0.16656021169  , 0.027599255782  , 0.180462942295  , 0.019071092201 );
                        kernels[38] = compute_kernel(x,   -0.897766680375  , -0.421542552605  , -1.180996763682  , -0.417181280217  , -0.041370799974  , -0.258903275878  , 0.073904224643 );
                        kernels[39] = compute_kernel(x,   0.31489958444  , -0.064595666712  , 0.016039073865  , 0.454136827186  , -0.183986847469  , -0.296032815442  , 0.328130565967 );
                        kernels[40] = compute_kernel(x,   -0.958311499362  , -0.230332182477  , -0.136126498704  , -0.620957289207  , 0.022923319799  , -0.110385117622  , -0.170352456236 );
                        kernels[41] = compute_kernel(x,   0.475221675155  , -0.023494515699  , 0.363483797899  , 0.135590422329  , 0.059161823671  , 0.694088239594  , 0.946249513499 );
                        kernels[42] = compute_kernel(x,   0.7588457602  , 1.161799305991  , 0.972146088178  , -0.293041872442  , -0.241267063267  , -0.042314295089  , 5.293021467112 );
                        kernels[43] = compute_kernel(x,   0.207821536732  , -0.113589535569  , 0.031255631122  , 0.055953821115  , 0.09890727953  , 0.143333402731  , 0.682053511731 );
                        kernels[44] = compute_kernel(x,   -0.27771693855  , -0.652966420191  , -0.792974553629  , -0.004944756285  , -0.015653152065  , 0.001003501069  , -0.165367626014 );
                        kernels[45] = compute_kernel(x,   1.064593408821  , -0.550220187285  , 0.391380819537  , 1.149785961323  , 0.194763967191  , -0.190832453344  , -0.888168008209 );
                        kernels[46] = compute_kernel(x,   -1.522388625339  , 1.123897138722  , -0.382127507692  , -1.506328914472  , -0.055398607924  , 0.527005311557  , 0.118767696641 );
                        kernels[47] = compute_kernel(x,   -0.867973614759  , -0.049954361936  , -0.661097724069  , -0.590508000507  , -0.003963312106  , 0.254722021422  , 0.158646338418 );
                        kernels[48] = compute_kernel(x,   -0.859419170177  , -0.404054215715  , -0.952748404828  , -0.375020726633  , 0.162032415307  , 0.285663304392  , 0.019071092201 );
                        kernels[49] = compute_kernel(x,   1.360237963409  , -0.817198983783  , 0.231606968339  , 1.334823946497  , -0.078778287841  , 0.093827349979  , -0.275033890899 );
                        kernels[50] = compute_kernel(x,   -0.292539726146  , 1.864083884066  , 0.992434831187  , -2.129368206324  , -0.007470264094  , -1.607943213364  , 4.360858215592 );
                        kernels[51] = compute_kernel(x,   1.188042893575  , -0.415468433066  , 0.624701364144  , 1.102940901785  , -0.058905559912  , 0.477499258805  , 1.016037136607 );
                        kernels[52] = compute_kernel(x,   -0.312524678577  , 0.348371368542  , 0.051544374132  , -0.998060018486  , -0.238929095275  , 0.050509553821  , -0.314912532675 );
                        kernels[53] = compute_kernel(x,   -0.257215769636  , -0.740559428343  , -0.610375866546  , 0.475217103978  , 0.056823855679  , 0.223780738452  , -0.05570136113 );
                        kernels[54] = compute_kernel(x,   1.0576613589  , -0.390431892539  , 0.295009290243  , 0.529088922447  , -0.064750479891  , -0.18464419675  , 0.926310192611 );
                        kernels[55] = compute_kernel(x,   0.759509467107  , -0.783019877846  , -0.067651991048  , 1.058438095224  , 0.038120111745  , 0.199027712076  , -0.195276607347 );
                        kernels[56] = compute_kernel(x,   0.322274105632  , -0.319361903422  , -0.087940734057  , 0.510350898631  , -0.086961175813  , 0.502252285181  , 0.452751321518 );
                        kernels[57] = compute_kernel(x,   -0.315769467901  , -0.093950687925  , -0.326333464416  , -0.253223571835  , -0.013315184073  , 0.26709853461  , -0.180322116681 );
                        kernels[58] = compute_kernel(x,   0.370872200288  , 0.577489073799  , 1.433714991639  , -0.307095390303  , 0.021754335803  , -0.240338506096  , 0.597311397957 );
                        kernels[59] = compute_kernel(x,   0.724849217505  , -0.658816210252  , 0.11241060316  , 0.828897303489  , -0.034356895999  , 0.192839455483  , 0.228433961526 );
                        kernels[60] = compute_kernel(x,   1.007514614795  , -0.696782814442  , 0.196101668073  , 1.1216789256  , 0.027599255782  , 0.273286791204  , -0.419593967338 );
                        kernels[61] = compute_kernel(x,   -3.000021436584  , 4.345245498626  , -0.818335482391  , -5.77157158539  , 0.474151142203  , -2.152509793634  , -0.010837889131 );
                        kernels[62] = compute_kernel(x,   0.478908935751  , -0.105940572665  , 0.830124887113  , 0.561880464123  , 0.046302999716  , 0.062886067009  , 0.223449131304 );
                        kernels[63] = compute_kernel(x,   -0.384426260199  , 4.280998908213  , 3.629971422393  , -2.74303848627  , -0.327771878961  , 2.005998637517  , 0.338100226411 );
                        kernels[64] = compute_kernel(x,   -1.935361812092  , 2.290500150633  , 0.401525191042  , -3.979748058068  , -0.189831767449  , 2.327787980404  , 0.258342942858 );
                        kernels[65] = compute_kernel(x,   2.284634194829  , 3.194623209038  , 2.301058755285  , -0.756807961866  , -0.449346214531  , -1.676014035898  , 3.697875796061 );
                        kernels[66] = compute_kernel(x,   -0.696884723105  , 0.183866487405  , 0.490288441707  , -0.913738911318  , 0.329197126716  , 0.378487153302  , 0.781750116172 );
                        kernels[67] = compute_kernel(x,   0.616148775134  , -0.404087780476  , -0.153879148837  , 0.585302993892  , 0.086048455576  , 0.35992238352  , 0.786734946394 );
                        kernels[68] = compute_kernel(x,   -0.472478043231  , -0.373442662725  , -0.4556742011  , 0.128563663398  , 0.131638831414  , -0.562127848982  , 0.477675472628 );
                        kernels[69] = compute_kernel(x,   0.150742742706  , 0.029168318805  , -0.316189092911  , 0.095772121722  , 0.006557543857  , -0.611633901734  , -0.838319705989 );
                        kernels[70] = compute_kernel(x,   1.041437412278  , -0.911918425842  , 0.008430795237  , 1.344192958405  , 0.052147919695  , 0.229968995046  , 0.268312603302 );
                        kernels[71] = compute_kernel(x,   1.098442461092  , 0.892303026366  , 0.688103686048  , -0.948872705972  , 0.028768239778  , -1.626507983146  , -0.579108534443 );
                        kernels[72] = compute_kernel(x,   0.789892494418  , -0.659266447939  , 0.049008281256  , 0.997539517825  , -0.216718399354  , 0.124768632949  , -0.185306946903 );
                        kernels[73] = compute_kernel(x,   -1.059932401388  , 0.022267690581  , -0.633200702431  , -0.546005193946  , -0.145410375606  , -0.382668407757  , 0.029040752645 );
                        kernels[74] = compute_kernel(x,   1.433540704058  , 1.418172661759  , 1.350023926725  , 0.051269315161  , -0.622355845919  , -0.190832453344  , 0.123752526864 );
                        kernels[75] = compute_kernel(x,   2.609776834185  , 0.194913913761  , 1.824273294567  , 1.372299994127  , 0.070851663629  , 0.991124556105  , -3.570006667663 );
                        kernels[76] = compute_kernel(x,   1.467463501541  , -0.221054936201  , 0.774330843837  , 1.126363431554  , 0.035782143753  , 0.161898172513  , 0.343085056633 );
                        kernels[77] = compute_kernel(x,   -0.432286902735  , 0.101525862072  , -0.242642399503  , -0.264934836719  , -0.40726279068  , 0.007191757663  , -2.617904095255 );
                        kernels[78] = compute_kernel(x,   -0.206479063835  , -0.5320979391  , -0.316189092911  , 0.257387577127  , 0.097738295534  , 0.415616692866  , -0.05570136113 );
                        kernels[79] = compute_kernel(x,   0.605455719406  , -0.958561078085  , -0.270539421141  , 1.112309913692  , 0.008895511848  , 0.130956889543  , -0.045731700686 );
                        kernels[80] = compute_kernel(x,   0.89748675861  , -0.575943095286  , 0.37616426228  , 0.981143746986  , -0.089299143804  , 0.415616692866  , 0.547463095736 );
                        kernels[81] = compute_kernel(x,   -0.96553853013  , -0.395092317591  , -0.881737804295  , -0.215747524205  , 0.122286959447  , -0.036126038495  , 1.075855099272 );
                        kernels[82] = compute_kernel(x,   -0.793417205508  , -0.283834616914  , -0.831015946772  , -0.283672860535  , -0.029680960015  , -0.21558547972  , -0.324882193119 );
                        kernels[83] = compute_kernel(x,   -4.446755004034  , 8.394167354837  , 1.499653406419  , -8.526061086213  , 0.47765809419  , 2.637200810103  , -0.339836683786 );
                        kernels[84] = compute_kernel(x,   0.375591893851  , -0.710354481458  , -0.255322863884  , 0.718811413575  , -0.102157967759  , 0.075262580197  , -0.120504154016 );
                        kernels[85] = compute_kernel(x,   1.658021129143  , -0.191244634392  , 1.169961332518  , 1.067807107131  , -0.590793278031  , -0.481680513261  , -0.569138873999 );
                        kernels[86] = compute_kernel(x,   -0.758683210694  , -0.475785896877  , -1.036439469741  , -0.199351753366  , 1.133458115871  , 0.576511364309  , -0.10554966335 );
                        kernels[87] = compute_kernel(x,   1.54386354109  , -0.579238191005  , 0.568907320868  , 1.489412642972  , 0.270747926922  , 0.223780738452  , 0.343085056633 );
                        kernels[88] = compute_kernel(x,   1.028163274132  , 1.562583101458  , 1.803984551558  , -0.749781202936  , 1.910832473121  , 4.741208052054  , 2.307108164114 );
                        kernels[89] = compute_kernel(x,   0.162763212249  , -0.554417199651  , -0.511468244376  , 0.299548130711  , -0.42129059863  , 0.322792843956  , -0.454487778892 );
                        kernels[90] = compute_kernel(x,   -0.271817321597  , 0.039572577414  , 0.568907320868  , 0.027846785392  , -0.04253978397  , -1.013870580343  , -0.265064230455 );
                        kernels[91] = compute_kernel(x,   1.592092909686  , -0.718442994484  , 0.424350026927  , 1.583102762047  , 1.433887002808  , 0.90448896379  , 0.23840362197 );
                        kernels[92] = compute_kernel(x,   0.86024542659  , -0.116251574656  , 0.748969915076  , 0.80547477372  , 0.788607837091  , 1.040630608857  , 0.697008002397 );
                        kernels[93] = compute_kernel(x,   -0.128825355683  , 0.385544465716  , 0.482680163079  , -0.044763056892  , 0.292958622844  , 0.84260639785  , 0.108798036197 );
                        kernels[94] = compute_kernel(x,   -0.525279614966  , -0.066700129207  , 0.152988089178  , 0.088745362791  , -0.199183639416  , -0.036126038495  , -1.117470198423 );
                        kernels[95] = compute_kernel(x,   -0.254708432431  , -0.332361765443  , -0.577406659156  , -0.208720765274  , 1.167358651751  , 0.892112450602  , 0.77676528595 );
                        kernels[96] = compute_kernel(x,   -0.107070518167  , -0.063591445026  , 0.097194045903  , -0.290699619465  , -0.815238205237  , -0.518810052825  , -0.359776004674 );
                        kernels[97] = compute_kernel(x,   -0.150801428836  , -0.38625012072  , -0.57487056628  , 0.156670699121  , -0.641059589853  , -0.611633901734  , -0.863243857099 );
                        kernels[98] = compute_kernel(x,   1.009726971152  , -0.152043022528  , 1.220683190041  , 0.653228330222  , 0.188919047212  , -0.24652676269  , -0.045731700686 );
                        kernels[99] = compute_kernel(x,   -0.152571313922  , -0.679068679812  , -0.635736795308  , 0.276125600942  , 0.738341525268  , 0.496064028587  , 1.379929742816 );
                        kernels[100] = compute_kernel(x,   1.170639023562  , -0.642815244913  , 0.333050683385  , 1.060780348201  , 1.013052764297  , -0.333162355005  , 0.053964903755 );
                        kernels[101] = compute_kernel(x,   -1.75055631102  , -0.057954240499  , -1.120130534654  , -1.124541679238  , -0.394403966725  , -0.902481961651  , -2.23905699838 );
                        kernels[102] = compute_kernel(x,   -0.359205397722  , -0.254715997954  , -0.420168900834  , 0.034873544323  , -0.364010382833  , -0.011373012119  , -0.369745665118 );
                        kernels[103] = compute_kernel(x,   -0.424027439  , 0.396388868221  , 0.097194045903  , -0.278988354581  , -0.719381517576  , -0.784905086366  , 0.328130565967 );
                        kernels[104] = compute_kernel(x,   0.843136537425  , -0.510987595515  , 0.000822516608  , 1.020962047594  , 1.141641003842  , 1.269596102834  , 0.701992832619 );
                        kernels[105] = compute_kernel(x,   -0.276020798676  , -0.020614753698  , -0.491179501366  , -0.766176973774  , -1.112160140187  , 0.025756527445  , -0.180322116681 );
                        kernels[106] = compute_kernel(x,   -0.857206813819  , 0.106348274283  , -0.460746386853  , -1.229943063198  , -1.122680996149  , -0.63638692811  , -0.459472609114 );
                        kernels[107] = compute_kernel(x,   -0.330739745921  , 1.511260579428  , 0.490288441707  , -1.152648714961  , -0.52883712625  , -0.240338506096  , 0.766795625506 );
                        kernels[108] = compute_kernel(x,   1.302716698111  , -0.056305392562  , 0.612020899763  , 0.636832559384  , 0.41570194241  , 0.372298896708  , -0.47442709978 );
                        kernels[109] = compute_kernel(x,   -0.630071561105  , 0.208248605696  , -0.775221903496  , -1.279130375713  , 0.352576806633  , 0.285663304392  , 1.035976457496 );
                        kernels[110] = compute_kernel(x,   0.377509269361  , -0.39127813867  , 0.14537981055  , 0.683677618921  , 0.751200349223  , -0.407421434133  , 1.14564272238 );
                        kernels[111] = compute_kernel(x,   -0.177423450339  , -0.048737022945  , -0.214745377865  , 0.135590422329  , 0.689244197442  , 0.755970805534  , 0.891416381057 );
                        kernels[112] = compute_kernel(x,   -0.685896686528  , -0.665630946471  , -0.947676219075  , -0.143137681921  , 0.885633508747  , 0.514628798369  , 0.741871474396 );
                        kernels[113] = compute_kernel(x,   1.571296759925  , -0.926273030209  , 0.289937104491  , 1.6791351341  , 0.663526549533  , 0.817853371474  , 0.153661508196 );
                        kernels[114] = compute_kernel(x,   -0.144385595399  , -0.493487655333  , -0.364374857558  , 0.262072083081  , -1.156581532029  , -0.073255578058  , 0.048980073533 );
                        kernels[115] = compute_kernel(x,   2.524969840476  , -0.152943297322  , 1.730437858149  , 1.704899916846  , -0.408431774676  , -0.258903275878  , -0.140443474904 );
                        kernels[116] = compute_kernel(x,   1.04918065953  , 2.558408015006  , 2.072810396431  , -1.023824801232  , -0.189831767449  , -0.989117553967  , 0.308191245079 );
                        kernels[117] = compute_kernel(x,   0.458776492897  , -0.150300886612  , 0.104802324531  , 0.292521371781  , -0.731071357534  , -0.240338506096  , 0.248373282414 );
                        kernels[118] = compute_kernel(x,   1.695262461162  , -0.426375458434  , 0.794619586846  , 1.482385884041  , 0.688075213446  , 0.35992238352  , -0.230170418901 );
                        kernels[119] = compute_kernel(x,   0.037396351985  , 0.028642979915  , 1.317054719335  , 0.177750975913  , 1.052798220156  , -0.147514657186  , -0.170352456236 );
                        kernels[120] = compute_kernel(x,   0.182895655103  , 0.289079210086  , 0.584123878125  , 0.055953821115  , 0.231002471063  , 1.040630608857  , 0.602296228179 );
                        kernels[121] = compute_kernel(x,   -1.002706116938  , 0.058860119219  , -0.902026547304  , -0.770861479728  , -0.750944085464  , -0.27746804566  , -0.235155249123 );
                        kernels[122] = compute_kernel(x,   -0.07993228018  , -0.264498859722  , 0.114946696036  , 0.08171860386  , -0.803548365278  , -0.469304000073  , -0.494366420669 );
                        kernels[123] = compute_kernel(x,   -1.152777623195  , -0.068802780481  , -1.125202720406  , -0.948872705972  , 0.776917997132  , 0.836418141256  , 0.233418791748 );
                        kernels[124] = compute_kernel(x,   1.907206200221  , -0.762428977611  , 0.809836144103  , 1.857146360344  , 0.91602709264  , 0.737406035752  , 0.053964903755 );
                        kernels[125] = compute_kernel(x,   0.078103708965  , -0.239969516276  , 0.322906311881  , 0.379184731926  , -0.497274558361  , -0.073255578058  , -0.160382795792 );
                        kernels[126] = compute_kernel(x,   -0.623287001608  , -0.523091863568  , -0.90456264018  , 0.04424255623  , -0.079947271837  , 0.118580376355  , 0.153661508196 );
                        kernels[127] = compute_kernel(x,   -1.229693879228  , -0.684212176019  , -1.102377884521  , -0.227458789089  , 1.412845290883  , 0.910677220384  , 0.632205209511 );
                        kernels[128] = compute_kernel(x,   -0.835156995455  , 0.260727744908  , 0.505504998964  , -0.522582664177  , -0.068257431879  , -0.085632091246  , -0.075640682018 );
                        kernels[129] = compute_kernel(x,   0.713787435717  , -0.670555906304  , -0.235034120874  , 0.927271928518  , 0.656512645558  , -0.048502551683  , 0.856522569502 );
                        kernels[130] = compute_kernel(x,   2.835879653932  , 0.853081975198  , 2.379677634446  , 1.423829559619  , 1.001362924338  , 1.529502879781  , -0.050716530908 );
                        kernels[131] = compute_kernel(x,   0.242555531547  , 0.119794947467  , 0.327978497633  , -0.084581357499  , -0.48909167039  , 0.100015606573  , -0.140443474904 );
                        kernels[132] = compute_kernel(x,   -0.131922654584  , -0.264317929718  , -0.232498027998  , 0.315943901549  , -1.37401255526  , -0.543563079201  , 0.248373282414 );
                        kernels[133] = compute_kernel(x,   -0.652637595952  , -0.269369061177  , -0.846232504029  , -0.412496774264  , -1.457010418967  , -0.023749525307  , 0.387948528631 );
                        kernels[134] = compute_kernel(x,   -0.72704651478  , -0.377324591674  , -0.688994745707  , -0.932476935133  , 0.453109430277  , -0.116573374216  , -0.050716530908 );
                        kernels[135] = compute_kernel(x,   1.759199559897  , -0.297208967402  , 0.982290459682  , 1.201315526814  , -0.628200765898  , -0.073255578058  , 0.228433961526 );
                        kernels[136] = compute_kernel(x,   0.997780246821  , 0.74335002651  , 0.814908329856  , -0.529609423108  , 0.453109430277  , -0.06087906487  , -0.494366420669 );
                        kernels[137] = compute_kernel(x,   -0.201095663365  , 0.885963478362  , 0.429422212679  , -1.098776896493  , 1.562475242354  , 0.929241990166  , 0.716947323285 );
                        kernels[138] = compute_kernel(x,   1.446962332627  , -0.721377796467  , 0.333050683385  , 1.292663392913  , 0.017078399819  , -0.469304000073  , -0.235155249123 );
                        kernels[139] = compute_kernel(x,   -0.698728353403  , -0.815292662407  , -1.084625234388  , 0.175408722936  , 0.11293508748  , 0.062886067009  , 0.123752526864 );
                        kernels[140] = compute_kernel(x,   0.298454402182  , 0.05209608397  , 0.031255631122  , 0.077034097907  , 1.060981108127  , 1.337666925368  , 0.48266030285 );
                        kernels[141] = compute_kernel(x,   1.439956537495  , -0.704438985436  , 0.44210267706  , 1.470674619157  , -1.065400780352  , -1.11907094244  , -1.635892541514 );
                        kernels[142] = compute_kernel(x,   1.283690433436  , -0.67262964285  , 0.264576175729  , 1.346535211381  , -1.3062114835  , -0.784905086366  , -0.42457879756 );
                        kernels[143] = compute_kernel(x,   -0.051835354439  , -0.418303396257  , -0.247714585255  , 0.189462240797  , 0.022923319799  , 0.285663304392  , 0.283267093969 );
                        kernels[144] = compute_kernel(x,   -0.169458967451  , 0.668437925346  , 0.670351035915  , -0.639695313022  , -0.352320542874  , -0.60544564514  , -0.633941666886 );
                        kernels[145] = compute_kernel(x,   2.109858042578  , 2.089263027141  , 2.460832606483  , -0.051789815822  , -0.703015741634  , -1.607943213364  , -0.344821514008 );
                        kernels[146] = compute_kernel(x,   -1.148500400904  , 0.065745183514  , -0.828479853896  , -1.438403578142  , -1.185806131926  , -0.469304000073  , -0.075640682018 );
                        kernels[147] = compute_kernel(x,   -0.465840974159  , -0.330962523776  , -0.691530838583  , 0.048927062184  , 1.223469883553  , 1.040630608857  , 0.45773615174 );
                        kernels[148] = compute_kernel(x,   -0.319014257226  , 0.112426969906  , -0.308580814283  , -0.454657327848  , 0.859915860838  , 0.706464752782  , 1.399869063704 );
                        kernels[149] = compute_kernel(x,   1.230225154794  , -0.17516867233  , 0.822516608484  , 0.852319833257  , -0.14424139161  , -0.425986203915  , -0.230170418901 );
                        kernels[150] = compute_kernel(x,   0.052882846488  , -0.290012145626  , -0.098085105562  , 0.259729830104  , -0.361672414841  , -0.382668407757  , -0.658865817996 );
                        kernels[151] = compute_kernel(x,   0.202954352746  , 1.106684857345  , 0.66020666441  , -1.806137295514  , -0.807055317266  , -0.475492256667  , -0.265064230455 );
                        kernels[152] = compute_kernel(x,   -0.312524678577  , -0.131719993489  , -0.278147699769  , 0.126221410421  , 0.061499791662  , 0.39086366649  , 0.323145735745 );
                        kernels[153] = compute_kernel(x,   0.431933235758  , 0.118292621561  , 0.548618577859  , 0.271441094989  , 0.269578942926  , -0.147514657186  , 0.218464301082 );
                        kernels[154] = compute_kernel(x,   -0.395266806351  , -0.35431428472  , -0.164023520342  , 0.140274928283  , 0.185412095224  , 0.007191757663  , -0.090595172684 );
                        kernels[155] = compute_kernel(x,   0.446756023354  , -0.485273178004  , -0.245178492379  , 0.482243862909  , 1.359072027073  , -0.234150249502  , -0.10554966335 );
                        kernels[156] = compute_kernel(x,   0.011954253872  , -0.162208919197  , -0.473426851233  , 0.123879157444  , -1.211523779835  , 0.242345508234  , -0.03077721002 );
                        kernels[157] = compute_kernel(x,   -0.529114365986  , -0.274625474973  , -0.531756987385  , -0.002602503308  , 1.562475242354  , 1.207713536894  , -0.120504154016 );
                        kernels[158] = compute_kernel(x,   0.468437115658  , 0.023384953472  , 0.556226856487  , -0.246196812904  , -0.160607167552  , -0.308409328629  , 0.323145735745 );
                        kernels[159] = compute_kernel(x,   0.526032126168  , 0.679143403748  , 0.568907320868  , -0.105661634291  , -0.469218942461  , -0.067067321464  , 0.731901813952 );
                        kernels[160] = compute_kernel(x,   0.608184292247  , 1.118295913285  , 0.655134478658  , -0.442946062963  , -1.440644643025  , 0.687899983001  , 0.053964903755 );
                        kernels[161] = compute_kernel(x,   -0.599393552946  , -0.892742570713  , -0.962892776332  , 0.329997419411  , 1.622093426143  , 0.601264390685  , 0.328130565967 );
                        kernels[162] = compute_kernel(x,   -0.037528783326  , -0.060162178633  , 0.262040082853  , 0.194146746751  , -0.530006110246  , -0.555939592388  , -0.489381590447 );
                        kernels[163] = compute_kernel(x,   -0.41480928751  , -0.815790692038  , -0.902026547304  , 0.400265008718  , 0.550135101934  , 0.39086366649  , 0.55743275618 );
                        kernels[164] = compute_kernel(x,   -0.86413886374  , -0.192051230478  , -0.250250678131  , -0.03070953903  , 1.350889139102  , 0.143333402731  , 1.97810936946 );
                        kernels[165] = compute_kernel(x,   0.221833126997  , 0.696373430921  , 0.234143061215  , -0.213405271228  , -0.454022150514  , 0.465122745617  , -0.534245062445 );
                        float decision = -0.338939802395;
                        decision = decision - ( + kernels[0] * -1.0  + kernels[1] * -1.0  + kernels[2] * -1.0  + kernels[3] * -1.0  + kernels[4] * -0.624073593737  + kernels[5] * -1.0  + kernels[6] * -1.0  + kernels[7] * -1.0  + kernels[8] * -1.0  + kernels[9] * -1.0  + kernels[10] * -1.0  + kernels[11] * -1.0  + kernels[12] * -1.0  + kernels[13] * -1.0  + kernels[14] * -1.0  + kernels[15] * -1.0  + kernels[16] * -1.0  + kernels[17] * -1.0  + kernels[18] * -0.078546945736  + kernels[19] * -1.0  + kernels[20] * -1.0  + kernels[21] * -1.0  + kernels[22] * -1.0  + kernels[23] * -1.0  + kernels[24] * -1.0  + kernels[25] * -1.0  + kernels[26] * -1.0  + kernels[27] * -1.0  + kernels[28] * -1.0  + kernels[29] * -1.0  + kernels[30] * -0.940006089367  + kernels[31] * -0.747461441692  + kernels[32] * -1.0  + kernels[33] * -1.0  + kernels[34] * -1.0  + kernels[35] * -1.0  + kernels[36] * -0.375831888954  + kernels[37] * -1.0  + kernels[38] * -1.0  + kernels[39] * -1.0  + kernels[40] * -1.0  + kernels[41] * -1.0  + kernels[42] * -0.264016258169  + kernels[43] * -1.0  + kernels[44] * -1.0  + kernels[45] * -1.0  + kernels[46] * -0.014548396974  + kernels[47] * -1.0  + kernels[48] * -1.0  + kernels[49] * -1.0  + kernels[50] * -0.364235506279  + kernels[51] * -1.0  + kernels[52] * -1.0  + kernels[53] * -0.715808623241  + kernels[54] * -1.0  + kernels[55] * -1.0  + kernels[56] * -1.0  + kernels[57] * -1.0  + kernels[58] * -1.0  + kernels[59] * -1.0  + kernels[60] * -1.0  + kernels[61] * -0.528856595237  + kernels[62] * -1.0  + kernels[63] * -0.566568574448  + kernels[64] * -0.215148247756  + kernels[65] * -0.68718093882  + kernels[66] * -1.0  + kernels[67] * -1.0  + kernels[68] * -1.0  + kernels[69] * -1.0  + kernels[70] * -1.0  + kernels[71] * -1.0  + kernels[72] * -1.0  + kernels[73] * -1.0  + kernels[74] * -1.0  + kernels[75] * -0.63798858577  + kernels[76] * -1.0  + kernels[77] * -0.645029872724  + kernels[78] * -1.0  + kernels[79] * -0.713581435116  + kernels[80] * -1.0  + kernels[81] * -1.0  + kernels[82] * -1.0  + kernels[83] * -0.657567605985  + kernels[84] * -1.0 );
                        decision = decision - ( + kernels[85] * 0.571900936825  + kernels[86] * 1.0  + kernels[87] * 1.0  + kernels[88] * 1.0  + kernels[89] * 1.0  + kernels[90] * 1.0  + kernels[91] * 0.001912513436  + kernels[92] * 1.0  + kernels[93] * 1.0  + kernels[94] * 1.0  + kernels[95] * 1.0  + kernels[96] * 1.0  + kernels[97] * 1.0  + kernels[98] * 1.0  + kernels[99] * 1.0  + kernels[100] * 1.0  + kernels[101] * 1.0  + kernels[102] * 1.0  + kernels[103] * 0.768523665146  + kernels[104] * 1.0  + kernels[105] * 1.0  + kernels[106] * 1.0  + kernels[107] * 1.0  + kernels[108] * 1.0  + kernels[109] * 1.0  + kernels[110] * 1.0  + kernels[111] * 1.0  + kernels[112] * 1.0  + kernels[113] * 1.0  + kernels[114] * 1.0  + kernels[115] * 1.0  + kernels[116] * 1.0  + kernels[117] * 1.0  + kernels[118] * 1.0  + kernels[119] * 1.0  + kernels[120] * 1.0  + kernels[121] * 1.0  + kernels[122] * 1.0  + kernels[123] * 1.0  + kernels[124] * 1.0  + kernels[125] * 1.0  + kernels[126] * 1.0  + kernels[127] * 1.0  + kernels[128] * 1.0  + kernels[129] * 1.0  + kernels[130] * 1.0  + kernels[131] * 1.0  + kernels[132] * 1.0  + kernels[133] * 1.0  + kernels[134] * 1.0  + kernels[135] * 1.0  + kernels[136] * 1.0  + kernels[137] * 0.789102897821  + kernels[138] * 1.0  + kernels[139] * 1.0  + kernels[140] * 0.909849653501  + kernels[141] * 1.0  + kernels[142] * 1.0  + kernels[143] * 1.0  + kernels[144] * 1.0  + kernels[145] * 0.442686885974  + kernels[146] * 1.0  + kernels[147] * 1.0  + kernels[148] * 1.0  + kernels[149] * 1.0  + kernels[150] * 1.0  + kernels[151] * 0.796917581763  + kernels[152] * 1.0  + kernels[153] * 1.0  + kernels[154] * 1.0  + kernels[155] * 1.0  + kernels[156] * 1.0  + kernels[157] * 0.473024141216  + kernels[158] * 1.0  + kernels[159] * 1.0  + kernels[160] * 1.0  + kernels[161] * 0.468098314748  + kernels[162] * 1.0  + kernels[163] * 1.0  + kernels[164] * 0.554434009576  + kernels[165] * 1.0 );

                        return decision > 0 ? 0 : 1;
                    }

                protected:
                    /**
                    * Compute kernel between feature vector and support vector.
                    * Kernel type: rbf
                    */
                    float compute_kernel(float *x, ...) {
                        va_list w;
                        va_start(w, 7);
                        float kernel = 0.0;

                        for (uint16_t i = 0; i < 7; i++) {
                            kernel += pow(x[i] - va_arg(w, double), 2);
                        }

                        return exp(-0.1 * kernel);
                    }
                };
            }
        }
    }